// Auto-generated by scripts/train-deep-model.mjs. Do not edit manually.

export interface TrainedDeepHeartModelArtifact {
  featureNames: string[];
  means: number[];
  stds: number[];
  architecture: {
    inputSize: number;
    hiddenSizes: number[];
    outputSize: number;
    activationHidden: string;
    activationOutput: string;
  };
  W1: number[][];
  b1: number[];
  W2: number[][];
  b2: number[];
  W3: number[];
  b3: number;
  metadata: {
    trainedAt: string;
    datasetRows: number;
    split: string;
    trainLoss: number;
    testLoss: number;
    trainAccuracy: number;
    testAccuracy: number;
  };
}

export const trainedDeepHeartModel: TrainedDeepHeartModelArtifact = {
  "featureNames": [
    "Age",
    "BMI",
    "Smoking",
    "Diabetic",
    "PhysicalActivity",
    "SleepTime"
  ],
  "means": [
    54.38181230057785,
    28.276662966082984,
    0.4118229630487479,
    0.1304255803459113,
    0.7760960980148636,
    7.09932471017647
  ],
  "stds": [
    17.97898614109529,
    6.339629636708803,
    0.4921633978213794,
    0.3367710622034349,
    0.41685842280171304,
    1.4331412288598981
  ],
  "architecture": {
    "inputSize": 6,
    "hiddenSizes": [
      16,
      8
    ],
    "outputSize": 1,
    "activationHidden": "relu",
    "activationOutput": "sigmoid"
  },
  "W1": [
    [
      0.02593952869864729,
      0.00722002120309097,
      0.1278731567140089,
      0.08783688263026444,
      -0.07666947681165541,
      0.13641858071486745
    ],
    [
      -0.04658640742191641,
      0.16373046147427095,
      -0.01420030076428432,
      -0.0876400171721268,
      0.07312138787717157,
      -0.07865726687867396
    ],
    [
      -0.00326870443561941,
      0.03332887454122179,
      -0.12851131862990964,
      0.09324371664319689,
      -0.17816406723776904,
      -0.12403026204923853
    ],
    [
      -0.4835960368657394,
      -0.1786025927743591,
      -0.01112139668408538,
      -0.2801073999185733,
      0.19832400449395535,
      0.0909740740414881
    ],
    [
      0.2408325077903424,
      0.01899984125785211,
      -0.04464274392375558,
      -0.17029836477524654,
      0.017059292409450637,
      -0.0717644040845713
    ],
    [
      0.25232050245445625,
      0.049786044959280656,
      0.008951372640959073,
      0.20750726187034424,
      -0.0661641285389615,
      0.09315410110458486
    ],
    [
      -0.1172227717018341,
      0.16428233584885057,
      -0.11455285317149866,
      -0.09740802894287331,
      0.10180397358238598,
      -0.033787940536984945
    ],
    [
      0.2245071056425691,
      0.18381388770178458,
      -0.09310612597221779,
      -0.04636783086526411,
      -0.09639711838374908,
      -0.07382602734663284
    ],
    [
      0.2874737639267648,
      -0.013179615130635765,
      0.12799083090844648,
      0.10006283990534534,
      -0.040756970947830665,
      0.02496761724057389
    ],
    [
      -0.0903704798259298,
      -0.12625934101515043,
      0.1907804366134675,
      -0.10478935300295145,
      0.004853026340332048,
      -0.10945647520214126
    ],
    [
      -0.03242720500946214,
      -0.13416957561242024,
      0.0993923994981932,
      0.27136609853348087,
      -0.0190306230464501,
      -0.14464573011178192
    ],
    [
      -0.19644455439279024,
      0.0630281029195649,
      -0.03024280390735867,
      -0.08216330483203085,
      -0.21178851686030123,
      -0.12514196536818148
    ],
    [
      0.3314135548836294,
      0.04526453540276647,
      0.2746855513900911,
      0.2607918723003284,
      -0.13385017576448685,
      -0.17714365461027873
    ],
    [
      -0.6761982533627314,
      -0.12169592104581974,
      -0.23951129066299554,
      -0.15469659042456035,
      0.11533969670965392,
      0.0451730609935493
    ],
    [
      -0.09051930201609278,
      -0.13050031812188653,
      -0.008469794772928077,
      -0.04123632472030577,
      0.2028626756227014,
      -0.1363131915572224
    ],
    [
      0.11109050254719643,
      0.12069783604131074,
      0.10510905647210268,
      -0.1589887476443103,
      0.13576992526448012,
      0.06457450835790242
    ]
  ],
  "b1": [
    -0.022557111576321624,
    -0.020171923033765533,
    -0.01425338665433939,
    0.2374563315647846,
    0.029999452715905657,
    0.08907901056706319,
    0.0651560320176126,
    0.03762902108599036,
    0.0739612055059581,
    -0.011009966565443738,
    0.00004822398618088755,
    0.04626134756163557,
    0.09773349419462672,
    0.4737454803923545,
    0.023547924349563317,
    0.014767026781469305
  ],
  "W2": [
    [
      0.1018138477528776,
      -0.12323668856436173,
      0.03497516328215587,
      -0.05856010815044207,
      0.06759840805779758,
      0.25478867081124673,
      -0.07876754875237318,
      0.1272183572161898,
      0.33611551669425543,
      0.05424328515155908,
      0.12033331594272392,
      -0.11601349595448684,
      0.38461234639082686,
      -0.1340807320425668,
      -0.11172191692369164,
      0.13750464513759264
    ],
    [
      0.1330879076112742,
      -0.06669439780462014,
      0.1398890376064772,
      0.20445181201128196,
      -0.06179240718345665,
      -0.14004825715279087,
      -0.06780658784383649,
      0.11882038539807631,
      -0.1316093031614294,
      -0.06737311485345766,
      -0.01948341627893259,
      -0.0014562241810078562,
      -0.06094405427748805,
      0.04519483395831206,
      0.01432181050559796,
      -0.1311348990679788
    ],
    [
      -0.04421567897315314,
      0.03648120795613103,
      -0.1301602032815543,
      -0.007427705257592829,
      -0.010855129230884702,
      0.03354594612915987,
      -0.10475293469458152,
      0.02188215153826127,
      0.09878950407447969,
      0.05301453575354122,
      0.0075257431213885,
      0.08081895536503976,
      0.12053342170701403,
      0.042453589966905264,
      0.05340360164712839,
      -0.014928414730708939
    ],
    [
      0.10741095440128987,
      0.02147595627185682,
      -0.11424692991047537,
      -0.013455298982260134,
      0.11957392168484779,
      0.13949624789929216,
      -0.031185118463247504,
      0.11957118589037322,
      0.05543919823748729,
      -0.025510596068817948,
      0.13306423008559273,
      0.09085200107437967,
      0.17850506748046432,
      -0.17627265951752363,
      0.013166694158084526,
      0.03854175288929762
    ],
    [
      -0.006340550271595312,
      -0.021970801286313697,
      0.10450490956465322,
      0.030331751555273075,
      -0.10928496346471203,
      0.14705903070681373,
      0.038213544603028726,
      0.13959430778412948,
      -0.1118397700318896,
      0.03926929252269404,
      0.14432111501111353,
      -0.07535671603319961,
      -0.07898634189854517,
      -0.1483877904677416,
      -0.0931960254148768,
      -0.10570585491467914
    ],
    [
      -0.10049529738708327,
      -0.056050621729176006,
      0.013629115540629698,
      0.4990675326433277,
      -0.19362052490448697,
      -0.14282232776386386,
      0.1710948981833353,
      0.036348833356167225,
      -0.02629614647002185,
      -0.06505536668905817,
      -0.04598922389238157,
      0.07880301944557502,
      -0.19878640342131845,
      0.6857338359599557,
      0.08867493992106476,
      -0.007220429634616125
    ],
    [
      -0.06740786583372588,
      0.0831691220022258,
      -0.08740501017458546,
      0.2033562931824716,
      -0.09986976505352674,
      -0.09419489081530515,
      0.13879008822007347,
      -0.08168380950290897,
      -0.07281710040227254,
      0.1537146202513183,
      -0.010900162774114557,
      0.18406045006951807,
      -0.07265258582444331,
      0.4707360257219338,
      0.11471144852458863,
      -0.03795062450182791
    ],
    [
      -0.028528466933399284,
      0.09235550368241034,
      0.09129529117371782,
      -0.08896783886974262,
      0.04424563532241116,
      -0.07883783762233933,
      0.13353706824361827,
      -0.04991057134274278,
      0.005800790247665264,
      0.10335491094720548,
      -0.07727346665748386,
      0.013847578881707524,
      0.03326641948423243,
      0.08244231845244447,
      0.06330248634625028,
      -0.09529351363918566
    ]
  ],
  "b2": [
    0.2218917381121737,
    0.12137729711672608,
    0.005396770267797136,
    0.16064411116019922,
    0.05140320168824764,
    0.33634675008083215,
    0.21638590138800518,
    0.00615157014916008
  ],
  "W3": [
    0.6456039523431342,
    -0.18835939393707865,
    0.07141477130837842,
    0.33492029178228505,
    0.10038966976060722,
    -0.9124363444494027,
    -0.6023942501658228,
    -0.03176065122070237
  ],
  "b3": 0.2019484025015919,
  "metadata": {
    "trainedAt": "2026-03-29T08:46:19.825Z",
    "datasetRows": 313014,
    "split": "80/20",
    "trainLoss": 0.55909,
    "testLoss": 0.55953,
    "trainAccuracy": 0.6526,
    "testAccuracy": 0.6523
  }
} as const;
