// Auto-generated by scripts/train-deep-model.mjs. Do not edit manually.

export interface TrainedDeepHeartModelArtifact {
  featureNames: string[];
  means: number[];
  stds: number[];
  architecture: {
    inputSize: number;
    hiddenSizes: number[];
    outputSize: number;
    activationHidden: string;
    activationOutput: string;
  };
  W1: number[][];
  b1: number[];
  W2: number[][];
  b2: number[];
  W3: number[];
  b3: number;
  metadata: {
    trainedAt: string;
    datasetRows: number;
    split: string;
    trainLoss: number;
    testLoss: number;
    trainAccuracy: number;
    testAccuracy: number;
  };
}

export const trainedDeepHeartModel: TrainedDeepHeartModelArtifact = {
  "featureNames": [
    "Age",
    "RestingBP",
    "Cholesterol",
    "FastingBS"
  ],
  "means": [
    53.33651226158038,
    132.55040871934605,
    198.6716621253406,
    0.22479564032697547
  ],
  "stds": [
    9.388952394848848,
    18.47745643455063,
    109.35192961405089,
    0.41744767386698794
  ],
  "architecture": {
    "inputSize": 4,
    "hiddenSizes": [
      16,
      8
    ],
    "outputSize": 1,
    "activationHidden": "relu",
    "activationOutput": "sigmoid"
  },
  "W1": [
    [
      -0.3467973564960278,
      -0.06774743614702876,
      0.13423002141923873,
      -0.06449224499837643
    ],
    [
      -0.008656829614643057,
      0.09803405890133028,
      -0.34335070622560976,
      0.2693100773532293
    ],
    [
      0.03702530783295531,
      -0.05206804965660573,
      0.07604955662378797,
      -0.06125217277790573
    ],
    [
      0.012255009547994414,
      0.05606524771001306,
      -0.4496411660391785,
      0.21489446947589852
    ],
    [
      -0.32328879855599796,
      -0.10055859493519503,
      0.012191165834069265,
      -0.3224559916758382
    ],
    [
      0.1031107849508337,
      -0.19279847940893735,
      0.15068870660710365,
      0.16936726322716741
    ],
    [
      0.15257398886238874,
      0.07607066178936638,
      -0.27374763023336157,
      -0.10001032509413288
    ],
    [
      0.04789891460376871,
      0.014965662073152171,
      -0.39990993247790185,
      0.2395670911704183
    ],
    [
      -0.15466087594131978,
      0.045198596198961834,
      -0.015959678013773456,
      -0.0813625452988098
    ],
    [
      0.1175524379017694,
      0.1852202429229208,
      -0.08868607474769348,
      -0.05621793895750815
    ],
    [
      0.17469434162221417,
      -0.03860654902638651,
      -0.035113174929797285,
      0.346371804075707
    ],
    [
      -0.11027148408247375,
      -0.0748936387027834,
      -0.05084045110567837,
      -0.08762389722231434
    ],
    [
      0.09272838483804216,
      -0.05643372341121361,
      0.07450600944012606,
      0.029139527634359577
    ],
    [
      -0.1355050620472181,
      -0.037919184292294274,
      -0.01011985764914304,
      -0.17173018091873696
    ],
    [
      0.19843539176990907,
      -0.08964705856619531,
      0.0034416003733683228,
      -0.11544997518844398
    ],
    [
      -0.26775512663711626,
      -0.14762843591775554,
      0.17142566393646438,
      0.05184943674620328
    ]
  ],
  "b1": [
    0.16994823640388845,
    0.10241712576519293,
    -0.06107898800017928,
    0.07286017273288889,
    0.1190095224063446,
    0.016246237878861213,
    0.08753915900740109,
    0.09560551117920207,
    0.026145667403549254,
    0.047203927094840684,
    0.16543314775311677,
    0.0025881060495276218,
    -0.0332020996777233,
    0.04032932070817271,
    -0.008037500913968914,
    0.1387086612734011
  ],
  "W2": [
    [
      -0.0030675451905555315,
      -0.09378289649427597,
      -0.09264195717533034,
      0.02992331890784265,
      -0.008608005899222742,
      -0.04563815364364726,
      -0.13722865506399826,
      -0.12046460173285023,
      -0.01859866129234545,
      0.05606596894136721,
      0.12884725908677755,
      0.11538276525625858,
      -0.1276831718355668,
      -0.10615422885264086,
      -0.1090277274739636,
      -0.125180484725444
    ],
    [
      -0.1503746077408452,
      0.04085626408994962,
      0.11084220294363978,
      0.12728493203665625,
      0.030608321616316735,
      -0.08244963605107505,
      0.0836611439023881,
      0.10115598690958813,
      0.13599315791437017,
      -0.10336653923922998,
      0.09645065084432203,
      0.09019723063927922,
      0.08629862137245539,
      -0.1296861667106782,
      0.1125602536910993,
      0.015276083048764606
    ],
    [
      0.2954736806936842,
      -0.2096004528263978,
      -0.0006942580896109256,
      -0.07029373991642325,
      0.25617835698028724,
      0.07992007964925459,
      -0.14825611800556318,
      -0.051166153776989964,
      0.182457026596316,
      -0.010521482648938051,
      -0.011069342811951068,
      -0.025489386662952442,
      0.057051920101010685,
      0.11644181532081298,
      -0.15987184997718773,
      0.23695028281915131
    ],
    [
      0.12328909634047479,
      -0.08896005153853007,
      0.1340501510319031,
      0.11292543733906509,
      -0.04970622885835708,
      -0.13820334224579747,
      -0.0814464078170091,
      0.11269278564604632,
      -0.12370941459610048,
      -0.08599115266371117,
      -0.03660082409194209,
      -0.02795044146001915,
      -0.06160398193607542,
      -0.05680702962676654,
      0.0020752989013439675,
      -0.13190052873632477
    ],
    [
      -0.048506899238515006,
      0.026301905124413327,
      -0.13139843537365573,
      -0.0007092919014598222,
      -0.02032793448544401,
      0.014237760086503218,
      -0.10217337749352798,
      0.008261190814803627,
      0.07491743353001439,
      0.04912299026449951,
      -0.00657198374752892,
      0.08130741641838679,
      0.08952844781561696,
      0.06552129164135842,
      0.05068817656187212,
      -0.02319747510997633
    ],
    [
      0.1828265888968248,
      -0.046075533347020754,
      -0.12901793646749404,
      -0.06658061946958371,
      0.1922177054783696,
      0.04166228853922061,
      -0.057308326305401884,
      0.0063468513232305375,
      -0.03289185531891379,
      -0.05061511662549163,
      0.035225906299253734,
      0.12909750792024094,
      0.004179621866079548,
      -0.08752199296282734,
      -0.016470387284072376,
      0.07368030955521765
    ],
    [
      -0.13828941445668722,
      0.3717288729352687,
      0.07221190012927513,
      0.45903738555389667,
      -0.23091650855935533,
      0.12971943667958558,
      0.22745158892879525,
      0.4765397092592813,
      -0.12027298870965683,
      0.19807802097998065,
      0.3529309593446962,
      -0.055712599515036036,
      -0.09436771940725779,
      -0.1889605422800885,
      -0.04368307584267894,
      -0.15092794851046717
    ],
    [
      -0.12105042426184247,
      -0.11862661262580475,
      -0.02132188516792744,
      0.11815019248396211,
      -0.1164558041779973,
      -0.10247458550461506,
      0.09569381971798839,
      0.09722110118033744,
      0.10730609723521405,
      -0.1242478153793996,
      -0.08373757100293101,
      -0.061335306264721876,
      -0.12331034645274447,
      0.13881783472197726,
      0.06088411403567847,
      0.04874413114611101
    ]
  ],
  "b2": [
    -0.01736428683161718,
    0.05205711984504496,
    0.3205405061034254,
    -0.011753137157930802,
    -0.03593225975315174,
    0.1003965165630054,
    0.3444844637636123,
    -0.025998734557446543
  ],
  "W3": [
    -0.06875401765177758,
    0.21299222676873839,
    -0.6188072305710213,
    -0.006988705639325924,
    -0.01624305478371565,
    -0.2604718816383852,
    0.9737805329801337,
    0.010173978455251548
  ],
  "b3": -0.009502168446381923,
  "metadata": {
    "trainedAt": "2026-03-29T09:08:56.731Z",
    "datasetRows": 918,
    "split": "80/20",
    "trainLoss": 0.5943,
    "testLoss": 0.57104,
    "trainAccuracy": 0.6853,
    "testAccuracy": 0.712
  }
} as const;
